digraph Tree {
node [shape=box, style="rounded", color="black", fontname=helvetica] ;
edge [fontname=helvetica] ;
0 [label="forecast_acc <= 58.5\nmse = 137.7\nsamples = 170\nvalue = 61.9"] ;
1 [label="average <= 47.7\nmse = 38.9\nsamples = 80\nvalue = 52.0"] ;
0 -> 1 [labeldistance=2.5, labelangle=45, headlabel="True"] ;
2 [label="temp_1 <= 44.5\nmse = 25.1\nsamples = 24\nvalue = 46.1"] ;
1 -> 2 ;
3 [label="mse = 8.1\nsamples = 10\nvalue = 42.0"] ;
2 -> 3 ;
4 [label="mse = 19.1\nsamples = 14\nvalue = 48.6"] ;
2 -> 4 ;
5 [label="temp_1 <= 56.5\nmse = 20.3\nsamples = 56\nvalue = 54.9"] ;
1 -> 5 ;
6 [label="mse = 5.6\nsamples = 31\nvalue = 52.2"] ;
5 -> 6 ;
7 [label="mse = 17.9\nsamples = 25\nvalue = 58.3"] ;
5 -> 7 ;
8 [label="temp_1 <= 70.5\nmse = 63.6\nsamples = 90\nvalue = 70.6"] ;
0 -> 8 [labeldistance=2.5, labelangle=-45, headlabel="False"] ;
9 [label="friend <= 54.5\nmse = 24.6\nsamples = 48\nvalue = 65.2"] ;
8 -> 9 ;
10 [label="mse = 4.0\nsamples = 13\nvalue = 60.4"] ;
9 -> 10 ;
11 [label="mse = 20.5\nsamples = 35\nvalue = 67.0"] ;
9 -> 11 ;
12 [label="temp_1 <= 76.5\nmse = 40.9\nsamples = 42\nvalue = 76.4"] ;
8 -> 12 ;
13 [label="mse = 19.7\nsamples = 21\nvalue = 73.7"] ;
12 -> 13 ;
14 [label="mse = 46.0\nsamples = 21\nvalue = 79.8"] ;
12 -> 14 ;
}